{"layers":[{"inputs":[1.82,0.01,0,20.18,0.06,-5.08,0.05,1,-5.2],"outputs":[-0.9999820931184498,-0.9999967429937501,-0.9999978777527302,-0.9999999999997858,-0.9999999855817456,1,-0.9999999997504373,0.9999999264216041],"biases":[0.036192596168940216,0.9963782377172876,0.7753576699461577,0.970300798838347,-0.6971028838711919,-0.9670012830031962,-0.7447004182807517,-0.3095494291892784],"weights":[[-0.33798116874049056,-0.005616326419530804,-0.48377915146420447,0.7869023365093528,0.8547928529068236,-0.8119653113624148,-0.03893011238666322,-0.6780323386176299],[0.9599540906488016,0.2853997812928304,0.6636862079547718,-0.1403530570418634,-0.17702860188987968,0.03670871147814214,-0.512677221330049,0.700770478203677],[0.25085583084217244,0.18448349730578784,0.6789556093445954,0.20662470068591876,0.10313468780219281,0.647245189790489,0.8508582693028064,0.6567279392048575],[-0.17500686022651335,-0.417726020975246,-0.37632868392205676,-0.7071501681063115,-0.20947236503203914,0.9535086921835809,-0.4498792709935415,0.4092223734645528],[-0.4016191581026045,-0.7731656003498872,0.2907723872531891,0.04884727010241541,0.24128288393448605,-0.14094463063700857,-0.5927544344177162,-0.15354809733579522],[0.871496691919238,0.1319153530720638,0.4580681488540348,-0.13778014047303788,0.7415078642634843,-0.32242208225471414,0.7174019117463044,-0.6623172779065816],[-0.12054544400409162,0.6486406085185017,-0.3801730731379358,0.24516342323717355,-0.6555951592981022,-0.12758030779258567,-0.6910966842048345,0.7941897832423033],[0.5449294939047125,-0.7652900569717103,-0.30910373197172847,-0.173986766464008,0.21384285603224518,0.9270269294604843,0.46881673557910153,0.7264423080069475],[-0.4233919809939741,-0.428106674154741,-0.6639150086840768,0.6931571791598428,0.4677570357719527,0.04761396664694617,-0.3351384093181977,0.4392359294531678]]},{"inputs":[-0.9999820931184498,-0.9999967429937501,-0.9999978777527302,-0.9999999999997858,-0.9999999855817456,1,-0.9999999997504373,0.9999999264216041],"outputs":[-0.5246562641584981,-0.5800530649671276],"biases":[0.8663607295630347,-0.27630022549315036],"weights":[[0.9665349346618313,-0.07140330754456548],[0.667573113922622,0.7152293024621819],[0.7653339876339111,0.07496919329607588],[-0.025029948843827032,-0.14359536331954237],[0.8453757069583467,-0.3146810061692742],[0.17848462425966938,-0.18802453007303033],[-0.7308689762129461,0.23297708803708872],[0.8613093763417088,0.29527680216232266]]}]}